{"yScore":-1251.223527348581,"bestPassedCarCount":12,"bestBrain":{"levels":[{"inputs":[0,0,0,0.5054369688402514,0.732344416259862],"outputs":[1,1,1,1,0,1],"biases":[-0.5125865728439405,0.09569003807286873,-0.024301522640455528,-0.07024807285503709,0.26256513149276683,-0.1954193051626809],"weights":[[-0.22873998824919,0.4837974756284905,0.4512545368706977,-0.397658762285407,-0.15641422538676297,-0.32154239842378074],[0.12365466890047074,-0.03655364324616277,-0.32704441019403874,-0.14289209777944167,-0.015303349382470008,-0.3036601823876243],[-0.3389303696210276,0.09159593972608422,-0.26862657484810637,0.19065280773458365,0.11848919361300773,0.1780010868671621],[-0.344342187498072,-0.3662342707913564,0.21148614626380255,0.3568932622294215,-0.2651970780762708,0.049053671566882104],[0.5267421287166592,0.3957545403314557,0.36012162971639683,0.30164500306499276,-0.5092370698582382,0.22763075092420262]]},{"inputs":[1,1,1,1,0,1],"outputs":[1,0,0,0],"biases":[-0.527505399542479,-0.45987478073381166,-0.20740036572901607,0.15723377583008835],"weights":[[0.34462867084387505,-0.19598024105247655,-0.28322858987678523,-0.11288020235418043],[0.5318037366573067,-0.2903457337104285,0.44894411218266156,-0.06812099279129316],[-0.11755033973570389,-0.4952735106728899,-0.04609943003260002,0.2326233088817426],[0.2749196510886287,0.6013834006957035,-0.253592600988703,-0.12001390084775468],[0.4832240911785793,-0.5022063248996518,-0.15315727472244872,0.39626621484633395],[0.4941038263484668,-0.17960191008744392,-0.6132274126386625,-0.5100825055266889]]}]}}